<?xml version="1.0"?>
<opencv_storage>
<myhaar type_id="opencv-haar-classifier">
  <size>
    24 24</size>
  <stages>
    <_>
      <trees>
        <_>
          <_>
            <feature>
              <rects>
                <_>
                  3 12 14 12 -1.</_>
                <_>
                  3 12 7 6 2.</_>
                <_>
                  10 18 7 6 2.</_></rects>
              <tilted>0</tilted></feature>
            <threshold>0.2104672938585281</threshold>
            <left_val>-1.</left_val>
            <right_val>1.0000300407409668</right_val></_></_></trees>
      <stage_threshold>1.0000300407409668</stage_threshold>
      <parent>-1</parent>
      <next>-1</next></_>
    <_>
      <trees>
        <_>
          <_>
            <feature>
              <rects>
                <_>
                  0 0 6 13 -1.</_>
                <_>
                  2 0 2 13 3.</_></rects>
              <tilted>0</tilted></feature>
            <threshold>0.0191392097622156</threshold>
            <left_val>-1.</left_val>
            <right_val>1.0000410079956055</right_val></_></_>
        <_>
          <_>
            <feature>
              <rects>
                <_>
                  23 0 1 3 -1.</_>
                <_>
                  23 1 1 1 3.</_></rects>
              <tilted>0</tilted></feature>
            <threshold>0.</threshold>
            <left_val>0.</left_val>
            <right_val>-0.7540115118026733</right_val></_></_>
        <_>
          <_>
            <feature>
              <rects>
                <_>
                  0 0 1 3 -1.</_>
                <_>
                  0 1 1 1 3.</_></rects>
              <tilted>0</tilted></feature>
            <threshold>-2.1425670638564043e-005</threshold>
            <left_val>1.</left_val>
            <right_val>-0.9999809861183167</right_val></_></_></trees>
      <stage_threshold>1.2460299730300903</stage_threshold>
      <parent>0</parent>
      <next>-1</next></_>
    <_>
      <trees>
        <_>
          <_>
            <feature>
              <rects>
                <_>
                  0 5 18 4 -1.</_>
                <_>
                  0 5 9 2 2.</_>
                <_>
                  9 7 9 2 2.</_></rects>
              <tilted>0</tilted></feature>
            <threshold>0.0446171499788761</threshold>
            <left_val>-1.</left_val>
            <right_val>1.0000319480895996</right_val></_></_>
        <_>
          <_>
            <feature>
              <rects>
                <_>
                  8 0 16 20 -1.</_>
                <_>
                  12 0 8 20 2.</_></rects>
              <tilted>0</tilted></feature>
            <threshold>-0.0124353896826506</threshold>
            <left_val>0.5753638148307800</left_val>
            <right_val>-1.0000070333480835</right_val></_></_></trees>
      <stage_threshold>1.5753959417343140</stage_threshold>
      <parent>1</parent>
      <next>-1</next></_></stages></myhaar>
</opencv_storage>
